"x"
0.314387975847037
-0.0534050331426712
-0.374859991447525
-0.0832455655710945
0.0244334754957927
0.492925012254934
0.193659605135205
-0.153447531318564
0.446957105963506
0.329975970418675
0.0739278386581047
0.138628680794738
0.00823134850549191
0.0850475783050151
0.185109538707604
-0.145191036484682
-0.738861792564833
-0.520139955601692
-0.25123319612746
-0.421900568059363
-0.139508505889246
0.569262361321856
0.304290772931942
-0.791460960734574
-0.0559540095895063
0.601778157573124
0.258835136594461
0.0316058283231113
-0.00400110915927894
0.541488833117892
-0.161633509135713
-0.601059894619712
0.147841064552915
0.0848557516345505
0.255286616812552
-0.431249961422747
-0.314724238269465
-0.150826583634274
0.482647479339201
0.0666930301569402
0.287793974435569
-0.0529718829488731
-0.369143086414601
0.257321049257358
0.136365405398148
0.0818550513785591
0.316953553889404
-0.400728364826215
0.00135187664575163
-0.0518221844493487
-0.064942217283613
0.0622098423271184
0.206644561221305
-0.798981727284955
0.311659867764935
-0.223125972249892
0.263638754319829
-0.107321144448842
0.125251837055049
-0.257077480164708
0.297513096686595
0.386951552468869
-0.0952659551821038
0.440703872732413
